<?xml version="1.0"?>
<opencv_storage>
<cascade>
  <stageType>BOOST</stageType>
  <featureType>HAAR</featureType>
  <height>20</height>
  <width>20</width>
  <stageParams>
    <boostType>GAB</boostType>
    <minHitRate>9.9500000476837158e-01</minHitRate>
    <maxFalseAlarm>5.0000000000000000e-01</maxFalseAlarm>
    <weightTrimRate>9.4999999999999996e-01</weightTrimRate>
    <maxDepth>1</maxDepth>
    <maxWeakCount>100</maxWeakCount></stageParams>
  <featureParams>
    <maxCatCount>0</maxCatCount>
    <featSize>1</featSize>
    <mode>ALL</mode></featureParams>
  <stageNum>14</stageNum>
  <stages>
    <!-- stage 0 -->
    <_>
      <maxWeakCount>1</maxWeakCount>
      <stageThreshold>8.7999999523162842e-01</stageThreshold>
      <weakClassifiers>
        <_>
          <internalNodes>
            0 -1 12 2.1373794972896576e-01</internalNodes>
          <leafValues>
            -1. 8.7999999523162842e-01</leafValues></_></weakClassifiers></_>
    <!-- stage 1 -->
    <_>
      <maxWeakCount>2</maxWeakCount>
      <stageThreshold>-1.7174735665321350e-02</stageThreshold>
      <weakClassifiers>
        <_>
          <internalNodes>
            0 -1 8 2.0611625164747238e-02</internalNodes>
          <leafValues>
            -9.5348834991455078e-01 9.1304349899291992e-01</leafValues></_>
        <_>
          <internalNodes>
            0 -1 9 -3.4272346645593643e-02</internalNodes>
          <leafValues>
            9.3631362915039063e-01 -9.2674207687377930e-01</leafValues></_></weakClassifiers></_>
    <!-- stage 2 -->
    <_>
      <maxWeakCount>2</maxWeakCount>
      <stageThreshold>-3.3105876296758652e-02</stageThreshold>
      <weakClassifiers>
        <_>
          <internalNodes>
            0 -1 4 -8.1845268607139587e-02</internalNodes>
          <leafValues>
            8.6666667461395264e-01 -9.2307692766189575e-01</leafValues></_>
        <_>
          <internalNodes>
            0 -1 26 1.1539237573742867e-02</internalNodes>
          <leafValues>
            -8.9880132675170898e-01 8.8997107744216919e-01</leafValues></_></weakClassifiers></_>
    <!-- stage 3 -->
    <_>
      <maxWeakCount>2</maxWeakCount>
      <stageThreshold>-2.2080312669277191e-01</stageThreshold>
      <weakClassifiers>
        <_>
          <internalNodes>
            0 -1 0 7.1596642956137657e-03</internalNodes>
          <leafValues>
            -7.9856115579605103e-01 8.3333331346511841e-01</leafValues></_>
        <_>
          <internalNodes>
            0 -1 24 2.4619828909635544e-03</internalNodes>
          <leafValues>
            -9.3463331460952759e-01 5.7775801420211792e-01</leafValues></_></weakClassifiers></_>
    <!-- stage 4 -->
    <_>
      <maxWeakCount>2</maxWeakCount>
      <stageThreshold>-5.6382551789283752e-02</stageThreshold>
      <weakClassifiers>
        <_>
          <internalNodes>
            0 -1 5 -1.0459102690219879e-02</internalNodes>
          <leafValues>
            8.2857143878936768e-01 -7.8571426868438721e-01</leafValues></_>
        <_>
          <internalNodes>
            0 -1 17 -3.4602515399456024e-02</internalNodes>
          <leafValues>
            7.2933173179626465e-01 -8.0768370628356934e-01</leafValues></_></weakClassifiers></_>
    <!-- stage 5 -->
    <_>
      <maxWeakCount>2</maxWeakCount>
      <stageThreshold>3.0324724502861500e-03</stageThreshold>
      <weakClassifiers>
        <_>
          <internalNodes>
            0 -1 29 6.7746778950095177e-03</internalNodes>
          <leafValues>
            -7.6388889551162720e-01 9.3548387289047241e-01</leafValues></_>
        <_>
          <internalNodes>
            0 -1 7 -1.0829273611307144e-02</internalNodes>
          <leafValues>
            7.6692134141921997e-01 -8.1015330553054810e-01</leafValues></_></weakClassifiers></_>
    <!-- stage 6 -->
    <_>
      <maxWeakCount>2</maxWeakCount>
      <stageThreshold>-2.2357244789600372e-01</stageThreshold>
      <weakClassifiers>
        <_>
          <internalNodes>
            0 -1 2 4.9891071394085884e-03</internalNodes>
          <leafValues>
            -7.5000000000000000e-01 8.7096774578094482e-01</leafValues></_>
        <_>
          <internalNodes>
            0 -1 28 1.9309848546981812e-02</internalNodes>
          <leafValues>
            -1. 5.2642756700515747e-01</leafValues></_></weakClassifiers></_>
    <!-- stage 7 -->
    <_>
      <maxWeakCount>2</maxWeakCount>
      <stageThreshold>-2.7874222397804260e-01</stageThreshold>
      <weakClassifiers>
        <_>
          <internalNodes>
            0 -1 16 -1.0466659441590309e-02</internalNodes>
          <leafValues>
            8.3333331346511841e-01 -7.9856115579605103e-01</leafValues></_>
        <_>
          <internalNodes>
            0 -1 10 2.9216043651103973e-02</internalNodes>
          <leafValues>
            -9.4836914539337158e-01 5.1981890201568604e-01</leafValues></_></weakClassifiers></_>
    <!-- stage 8 -->
    <_>
      <maxWeakCount>2</maxWeakCount>
      <stageThreshold>-1.0866597294807434e-01</stageThreshold>
      <weakClassifiers>
        <_>
          <internalNodes>
            0 -1 1 1.1827086657285690e-01</internalNodes>
          <leafValues>
            -8.0000001192092896e-01 8.8571429252624512e-01</leafValues></_>
        <_>
          <internalNodes>
            0 -1 14 1.6388960182666779e-02</internalNodes>
          <leafValues>
            -7.4949312210083008e-01 6.9133400917053223e-01</leafValues></_></weakClassifiers></_>
    <!-- stage 9 -->
    <_>
      <maxWeakCount>2</maxWeakCount>
      <stageThreshold>-5.7675999402999878e-01</stageThreshold>
      <weakClassifiers>
        <_>
          <internalNodes>
            0 -1 23 1.8793877214193344e-02</internalNodes>
          <leafValues>
            -9.6153843402862549e-01 2.6760563254356384e-01</leafValues></_>
        <_>
          <internalNodes>
            0 -1 27 4.2433990165591240e-03</internalNodes>
          <leafValues>
            -8.4436565637588501e-01 5.6647682189941406e-01</leafValues></_></weakClassifiers></_>
    <!-- stage 10 -->
    <_>
      <maxWeakCount>3</maxWeakCount>
      <stageThreshold>-9.7013890743255615e-01</stageThreshold>
      <weakClassifiers>
        <_>
          <internalNodes>
            0 -1 3 -6.6461756825447083e-02</internalNodes>
          <leafValues>
            1. -7.7777779102325439e-01</leafValues></_>
        <_>
          <internalNodes>
            0 -1 20 -3.3767834305763245e-02</internalNodes>
          <leafValues>
            8.2585519552230835e-01 -7.5504308938980103e-01</leafValues></_>
        <_>
          <internalNodes>
            0 -1 11 1.0197083465754986e-03</internalNodes>
          <leafValues>
            -8.8707584142684937e-01 5.6268197298049927e-01</leafValues></_></weakClassifiers></_>
    <!-- stage 11 -->
    <_>
      <maxWeakCount>3</maxWeakCount>
      <stageThreshold>-8.1124436855316162e-01</stageThreshold>
      <weakClassifiers>
        <_>
          <internalNodes>
            0 -1 21 1.1529905721545219e-02</internalNodes>
          <leafValues>
            -7.2972971200942993e-01 1.</leafValues></_>
        <_>
          <internalNodes>
            0 -1 6 -2.1618546918034554e-02</internalNodes>
          <leafValues>
            6.3503295183181763e-01 -8.5770183801651001e-01</leafValues></_>
        <_>
          <internalNodes>
            0 -1 25 5.6692175567150116e-02</internalNodes>
          <leafValues>
            -7.1654760837554932e-01 7.9119175672531128e-01</leafValues></_></weakClassifiers></_>
    <!-- stage 12 -->
    <_>
      <maxWeakCount>3</maxWeakCount>
      <stageThreshold>-8.4931272268295288e-01</stageThreshold>
      <weakClassifiers>
        <_>
          <internalNodes>
            0 -1 13 -5.7190292864106596e-05</internalNodes>
          <leafValues>
            8.9189189672470093e-01 -8.2608693838119507e-01</leafValues></_>
        <_>
          <internalNodes>
            0 -1 19 5.5302349210251123e-05</internalNodes>
          <leafValues>
            -7.1035784482955933e-01 8.4844958782196045e-01</leafValues></_>
        <_>
          <internalNodes>
            0 -1 18 -3.9209370152093470e-04</internalNodes>
          <leafValues>
            7.3848694562911987e-01 -8.7167537212371826e-01</leafValues></_></weakClassifiers></_>
    <!-- stage 13 -->
    <_>
      <maxWeakCount>2</maxWeakCount>
      <stageThreshold>5.7143885642290115e-02</stageThreshold>
      <weakClassifiers>
        <_>
          <internalNodes>
            0 -1 15 1.6096414765343070e-04</internalNodes>
          <leafValues>
            -9.3939393758773804e-01 1.</leafValues></_>
        <_>
          <internalNodes>
            0 -1 22 -1.8191502895206213e-03</internalNodes>
          <leafValues>
            -9.4285613298416138e-01 1.</leafValues></_></weakClassifiers></_></stages>
  <features>
    <_>
      <rects>
        <_>
          0 0 6 2 -1.</_>
        <_>
          0 0 3 1 2.</_>
        <_>
          3 1 3 1 2.</_></rects>
      <tilted>0</tilted></_>
    <_>
      <rects>
        <_>
          0 0 18 6 -1.</_>
        <_>
          0 2 18 2 3.</_></rects>
      <tilted>0</tilted></_>
    <_>
      <rects>
        <_>
          0 3 4 1 -1.</_>
        <_>
          2 3 2 1 2.</_></rects>
      <tilted>0</tilted></_>
    <_>
      <rects>
        <_>
          0 7 12 13 -1.</_>
        <_>
          3 7 6 13 2.</_></rects>
      <tilted>0</tilted></_>
    <_>
      <rects>
        <_>
          0 8 20 12 -1.</_>
        <_>
          5 8 10 12 2.</_></rects>
      <tilted>0</tilted></_>
    <_>
      <rects>
        <_>
          0 13 2 6 -1.</_>
        <_>
          1 13 1 6 2.</_></rects>
      <tilted>0</tilted></_>
    <_>
      <rects>
        <_>
          0 17 12 3 -1.</_>
        <_>
          4 17 4 3 3.</_></rects>
      <tilted>0</tilted></_>
    <_>
      <rects>
        <_>
          1 2 10 1 -1.</_>
        <_>
          6 2 5 1 2.</_></rects>
      <tilted>0</tilted></_>
    <_>
      <rects>
        <_>
          2 0 16 4 -1.</_>
        <_>
          2 1 16 2 2.</_></rects>
      <tilted>0</tilted></_>
    <_>
      <rects>
        <_>
          2 1 3 12 -1.</_>
        <_>
          2 4 3 6 2.</_></rects>
      <tilted>0</tilted></_>
    <_>
      <rects>
        <_>
          2 5 2 12 -1.</_>
        <_>
          2 9 2 4 3.</_></rects>
      <tilted>0</tilted></_>
    <_>
      <rects>
        <_>
          2 15 10 2 -1.</_>
        <_>
          2 15 5 1 2.</_>
        <_>
          7 16 5 1 2.</_></rects>
      <tilted>0</tilted></_>
    <_>
      <rects>
        <_>
          3 4 16 16 -1.</_>
        <_>
          3 8 16 8 2.</_></rects>
      <tilted>0</tilted></_>
    <_>
      <rects>
        <_>
          4 2 3 3 -1.</_>
        <_>
          5 2 1 3 3.</_></rects>
      <tilted>0</tilted></_>
    <_>
      <rects>
        <_>
          4 4 14 3 -1.</_>
        <_>
          4 5 14 1 3.</_></rects>
      <tilted>0</tilted></_>
    <_>
      <rects>
        <_>
          4 11 4 2 -1.</_>
        <_>
          5 11 2 2 2.</_></rects>
      <tilted>0</tilted></_>
    <_>
      <rects>
        <_>
          6 18 5 2 -1.</_>
        <_>
          6 19 5 1 2.</_></rects>
      <tilted>0</tilted></_>
    <_>
      <rects>
        <_>
          7 1 12 10 -1.</_>
        <_>
          7 6 12 5 2.</_></rects>
      <tilted>0</tilted></_>
    <_>
      <rects>
        <_>
          9 16 8 1 -1.</_>
        <_>
          13 16 4 1 2.</_></rects>
      <tilted>0</tilted></_>
    <_>
      <rects>
        <_>
          10 18 2 1 -1.</_>
        <_>
          11 18 1 1 2.</_></rects>
      <tilted>0</tilted></_>
    <_>
      <rects>
        <_>
          11 2 8 18 -1.</_>
        <_>
          13 2 4 18 2.</_></rects>
      <tilted>0</tilted></_>
    <_>
      <rects>
        <_>
          12 1 8 1 -1.</_>
        <_>
          14 1 4 1 2.</_></rects>
      <tilted>0</tilted></_>
    <_>
      <rects>
        <_>
          12 9 6 3 -1.</_>
        <_>
          14 10 2 1 9.</_></rects>
      <tilted>0</tilted></_>
    <_>
      <rects>
        <_>
          12 11 4 9 -1.</_>
        <_>
          12 14 4 3 3.</_></rects>
      <tilted>0</tilted></_>
    <_>
      <rects>
        <_>
          12 17 8 2 -1.</_>
        <_>
          12 17 4 1 2.</_>
        <_>
          16 18 4 1 2.</_></rects>
      <tilted>0</tilted></_>
    <_>
      <rects>
        <_>
          13 4 4 11 -1.</_>
        <_>
          13 4 2 11 2.</_></rects>
      <tilted>1</tilted></_>
    <_>
      <rects>
        <_>
          16 1 4 12 -1.</_>
        <_>
          16 1 2 6 2.</_>
        <_>
          18 7 2 6 2.</_></rects>
      <tilted>0</tilted></_>
    <_>
      <rects>
        <_>
          18 3 2 8 -1.</_>
        <_>
          18 3 1 4 2.</_>
        <_>
          19 7 1 4 2.</_></rects>
      <tilted>0</tilted></_>
    <_>
      <rects>
        <_>
          18 8 2 8 -1.</_>
        <_>
          18 8 2 4 2.</_></rects>
      <tilted>1</tilted></_>
    <_>
      <rects>
        <_>
          18 14 2 3 -1.</_>
        <_>
          19 14 1 3 2.</_></rects>
      <tilted>0</tilted></_></features></cascade>
</opencv_storage>
